eat 0.64295 -0.42946 -0.54277 -1.0307 1.2056 -0.27174 -0.63561 -0.015065 0.37856 0.046474 -0.13102 0.605 1.6391 0.2394 1.2128 0.83178 0.73893 0.152 -0.14175 -0.88384 0.020829 -0.32545 1.8035 1.0045 0.58484 -0.62031 -0.43296 0.23562 1.3027 -0.81264 2.3158 1.103 -0.60608 1.0101 -0.22426 0.018908 -0.10931 0.3835 0.77362 -0.081927 -0.3404 -0.0015143 -0.05664 0.87359 1.4805 0.69421 -0.30966 -0.90826 0.0037277 0.8455
turkey 0.38135 -0.20444 -0.57329 0.039556 0.56655 0.59311 0.40481 0.35574 0.14022 -0.56136 0.4968 -0.87828 0.56048 0.13002 0.53682 0.99199 0.71035 0.10209 -0.19113 1.3147 0.25936 -0.46464 0.40656 0.57927 0.30932 -2.2949 0.69226 0.39545 0.13891 -0.11567 2.5195 0.99871 -0.89958 0.98059 -0.66361 0.12376 -0.3936 0.49665 -0.99641 0.3154 -0.080299 0.51342 0.46186 -1.0601 0.31185 1.031 -0.5048 1.5887 -0.21222 -1.1793
trot -0.63032 -0.10584 -0.36984 0.19187 0.006515 0.37787 -0.89518 0.43433 -0.047822 0.24027 -0.26639 0.33825 -0.36734 1.0539 0.070009 -0.29126 0.44541 -0.172 -0.33906 0.04695 -0.26066 -0.8556 0.33639 0.51763 0.64166 -0.489 0.46082 0.24034 0.80629 -1.2579 0.040152 1.0434 0.10146 1.4603 -0.2033 -0.58514 -0.18756 0.76307 -0.68643 0.77482 -0.86597 0.20292 -1.1061 0.70818 -0.474 -0.7803 0.36971 -0.56704 -0.42976 0.07813
race -0.65295 0.41716 -0.18996 1.1856 -0.058602 0.84315 -0.75376 0.026361 -0.1327 -0.8641 -0.34734 -1.363 -1.049 -0.33016 1.0228 -0.372 0.32135 0.21091 -1.7135 -1.5031 -0.5127 -0.14772 -0.21789 0.62638 1.001 -1.5693 -0.23567 -0.238 -0.029894 0.62624 2.3002 0.68448 -1.3347 -0.11154 0.14985 -1.2623 -0.24938 1.0384 -0.9126 -0.69074 -0.57282 -0.54585 -0.22937 0.62965 -0.34503 -0.41869 0.49086 -0.67952 0.9101 -0.1719
thanksgiving 0.23494 0.30074 -1.2414 -0.43959 0.95516 -0.82546 -1.5828 0.066612 0.30603 -0.30074 -1.074 -0.54294 1.0121 0.23861 1.4173 0.2936 -1.0741 -0.50845 -0.64259 0.19059 0.93581 -0.27601 0.17358 0.30756 0.099026 -0.48789 -0.53134 0.22291 1.2382 -0.18953 1.4101 1.5561 -0.51668 0.7721 0.08127 -0.036564 -0.031289 0.29943 -0.40856 0.034084 -0.75672 0.12161 -0.98348 0.19106 0.019204 1.1321 0.1256 0.051663 -0.45228 0.479
holiday 0.34004 0.8252 -1.1647 -0.35667 0.40056 -1.0342 -1.5525 -0.19972 0.13766 0.21185 -0.71318 -0.41115 0.75159 0.046467 1.32 0.43956 -0.72339 -0.87379 -0.20467 -0.25055 1.0435 -0.27921 -0.72721 0.3798 -0.13767 -0.35652 -1.1063 0.0024228 1.115 0.41156 2.575 1.384 -0.15682 0.91207 0.25275 -0.00691 0.11244 -0.44409 -0.73562 0.15953 -0.88717 0.21723 -0.45743 -0.18037 0.5809 0.3934 -0.14874 -0.29455 0.15459 0.2167
day 0.11626 0.53897 -0.39514 -0.26027 0.57706 -0.79198 -0.88374 0.30119 0.082896 -0.33443 -0.64467 -0.75366 -0.30356 0.07884 1.2252 -0.038627 -0.47341 -0.40556 -1.1165 -0.21352 0.49275 0.55574 0.38941 -0.22514 0.37775 -1.4233 -0.13409 0.10737 0.16528 0.35527 3.5733 0.76404 -0.59226 0.51366 0.12055 -0.36967 0.43251 0.086429 0.034554 0.082458 -0.8792 0.26134 -0.32132 -0.12652 0.25573 0.32818 0.024073 -0.39062 -0.10885 0.084513
movie 0.30824 0.17223 -0.23339 0.023105 0.28522 0.23076 -0.41048 -1.0035 -0.2072 1.4327 -0.80684 0.68954 -0.43648 1.1069 1.6107 -0.31966 0.47744 0.79395 -0.84374 0.064509 0.90251 0.78609 0.29699 0.76057 0.433 -1.5032 -1.6423 0.30256 0.30771 -0.87057 2.4782 -0.025852 0.5013 -0.38593 -0.15633 0.45522 0.04901 -0.42599 -0.86402 -1.3076 -0.29576 1.209 -0.3127 -0.72462 -0.80801 0.082667 0.26738 -0.98177 -0.32147 0.99823
space 1.5873 1.0444 0.98571 0.21475 0.76442 -0.58841 -0.61534 -0.9215 0.62925 -0.48231 0.43903 0.2115 -0.22198 1.7186 0.10879 0.47857 0.49157 0.79214 -1.0202 -0.53064 0.52816 0.15984 -0.81664 -0.32418 0.31581 -0.70795 -0.26112 0.12716 0.79791 0.42946 2.929 -0.12195 -0.46265 -0.80032 -0.51309 0.50381 0.28571 0.5836 -0.0606 0.45625 0.42034 -0.076178 0.36909 0.59936 -0.89906 0.11412 0.32726 -0.42911 -0.90878 0.41363
museum 0.41866 1.2699 -0.90373 0.066019 0.49067 -1.0735 -1.5408 -0.80936 0.25895 -0.50006 -0.02743 -0.10233 0.30374 -0.42188 0.35701 0.047107 0.50077 0.68002 -0.77587 0.34361 1.364 -0.22219 -1.6094 -0.36559 -0.19263 -1.309 -1.5814 -0.086913 -0.47749 -1.5034 1.6033 -0.61624 0.0040258 -1.2335 -0.52114 0.5952 0.42655 0.81295 0.54014 0.46162 0.53364 -0.43094 0.71415 -0.46401 -0.15577 0.81307 -0.45274 -0.59012 -0.53896 -0.34071
cool -0.65575 0.45659 -0.16748 -0.58345 -0.23073 -0.78348 -0.23166 -0.022452 -0.57968 0.526 -0.2214 0.17614 0.46513 0.79142 0.017403 1.0879 0.24418 0.27523 -0.26452 -1.0389 0.014045 0.68459 0.98151 0.21561 0.36278 -0.51819 -0.40552 1.349 1.5399 0.60541 2.6604 0.074535 -0.076292 0.12501 -0.026268 0.16843 -0.41844 0.44505 0.25033 -1.1557 0.24575 0.41847 -0.10633 -0.28433 0.51215 0.51371 0.53004 -0.889 0.054744 0.78793
travel 0.78945 1.1267 0.094963 -0.085176 -0.88211 -0.82305 -1.2444 -0.14937 0.80468 -0.45126 -0.018175 0.38926 0.18674 0.10705 0.76963 0.4768 -0.28126 -0.38387 -0.081783 -0.22716 0.81244 0.019555 -0.19809 1.0188 0.12298 -1.4167 0.18506 -0.1265 0.40724 0.17462 2.8151 1.2231 -0.26994 -0.068899 -0.15436 -0.041211 -0.3162 -0.11241 -0.7093 0.38703 0.2446 0.53578 1.079 0.17798 -0.18645 -0.081237 -0.077889 0.37224 0.12708 0.079093
snail 1.5995 0.056617 -0.74686 1.633 0.95313 -0.37031 -0.64459 -0.14268 1.2535 -0.49196 -0.2777 1.2187 1.4841 0.14038 -0.69708 -0.52562 -0.41494 0.095461 -1.2111 0.02822 -1.0951 -0.70432 0.16136 -0.50625 1.3748 0.038029 1.027 0.37913 1.1406 0.57804 1.1906 -1.1394 0.68903 1.3187 -0.64631 -0.12597 -1.0268 -0.67674 0.085369 0.21346 0.96014 -0.096997 -0.64117 1.4155 0.93879 -0.030646 0.61383 -0.57206 -0.0067606 0.18349
the 0.418 0.24968 -0.41242 0.1217 0.34527 -0.044457 -0.49688 -0.17862 -0.00066023 -0.6566 0.27843 -0.14767 -0.55677 0.14658 -0.0095095 0.011658 0.10204 -0.12792 -0.8443 -0.12181 -0.016801 -0.33279 -0.1552 -0.23131 -0.19181 -1.8823 -0.76746 0.099051 -0.42125 -0.19526 4.0071 -0.18594 -0.52287 -0.31681 0.00059213 0.0074449 0.17778 -0.15897 0.012041 -0.054223 -0.29871 -0.15749 -0.34758 -0.045637 -0.44251 0.18785 0.0027849 -0.18411 -0.11514 -0.78581
turtle 0.78704 0.28021 -0.43611 0.95589 0.28112 0.51122 -1.3645 -0.69482 1.0201 -0.93258 -0.37688 0.10091 1.8487 0.79231 -0.44705 0.45326 0.4639 0.02475 -1.0393 0.39125 -0.68828 -0.089727 0.49499 -0.58534 0.31644 0.23908 -0.38879 0.5804 0.58616 -0.95142 0.82003 -0.68813 -0.68467 0.48773 -0.14685 0.31916 -0.25161 -0.83133 0.060382 -0.89374 -0.62713 -0.81557 0.10142 0.15569 1.1174 -0.081065 0.13792 -0.62497 0.36175 -0.10218
aspiring -0.43762 0.83236 0.29638 -0.7818 0.24432 0.32892 -0.8275 0.12692 -0.39246 0.86643 0.243 -0.00066664 0.52488 1.5963 0.38362 -0.32021 1.0324 0.70235 0.41679 -0.20262 0.28378 0.94354 -0.34941 1.4981 0.32488 -0.66963 -0.42229 -1.3033 -0.59413 -0.070466 0.70193 0.30914 -0.40663 -0.64972 0.77279 0.33412 -0.80891 0.024861 -0.51049 -0.81757 -0.10251 0.56904 0.67411 -0.1903 0.40583 -0.61531 0.2266 -0.0011493 -0.6526 0.18631
star -0.21025 1.6081 0.037375 1.0411 0.61061 0.064748 -0.93674 -0.030028 -0.18348 0.73875 0.65025 0.75496 -0.73316 0.95964 0.89172 -0.10495 0.11496 0.30448 -1.4942 -0.036297 -0.95949 0.41062 -0.23896 0.40387 -0.32893 -1.5343 -0.45627 0.109 -0.41474 -0.57094 2.1997 0.47089 0.56732 -0.16914 0.43481 0.40459 -0.007678 -0.22073 -0.33289 -1.0992 0.33632 1.3412 -0.34081 -0.50183 -0.2514 -0.10199 0.19292 -0.48934 -0.41793 0.18085
orange -0.42783 0.43089 -0.50351 0.5776 0.097786 0.2608 -0.68767 -0.31936 -0.25337 -0.37255 -0.045907 -0.53688 0.97511 -0.44595 -0.50414 -0.086751 -1.0645 0.36625 -0.52428 -1.3413 -0.2391 -0.58808 0.56378 -0.062501 -1.7429 -0.88077 -0.27933 1.4705 0.50436 -0.69174 2.0018 0.26663 -0.85679 -0.18893 -0.021125 -0.055118 -0.50337 -0.67157 0.55502 -0.8009 0.10695 0.1459 -0.55588 -0.64971 0.22046 0.67415 -0.45119 -1.1462 0.16348 -0.62946
bird 0.78675 0.079368 -0.76597 0.1931 0.55014 0.26493 -0.75841 -0.8818 1.6468 -0.54381 0.33519 0.44399 1.089 0.27044 0.74471 0.2487 0.2491 -0.28966 -1.4556 0.35605 -1.1725 -0.49858 0.35345 -0.1418 0.71734 -1.1416 -0.038701 0.27515 -0.017704 -0.44013 1.9597 -0.064666 0.47177 -0.03 -0.31617 0.26984 0.56195 -0.27882 -0.36358 -0.21923 -0.75046 0.31817 0.29354 0.25109 1.6111 0.7134 -0.15243 -0.25362 0.26419 0.15875
apple 0.52042 -0.8314 0.49961 1.2893 0.1151 0.057521 -1.3753 -0.97313 0.18346 0.47672 -0.15112 0.35532 0.25912 -0.77857 0.52181 0.47695 -1.4251 0.858 0.59821 -1.0903 0.33574 -0.60891 0.41742 0.21569 -0.07417 -0.5822 -0.4502 0.17253 0.16448 -0.38413 2.3283 -0.66682 -0.58181 0.74389 0.095015 -0.47865 -0.84591 0.38704 0.23693 -1.5523 0.64802 -0.16521 -1.4719 -0.16224 0.79857 0.97391 0.40027 -0.21912 -0.30938 0.26581
rat 0.80165 -0.36917 -0.38166 -0.090699 -0.48203 0.44434 -0.093362 -0.91821 0.56248 -0.1119 0.18622 0.75844 0.57118 0.88046 0.039176 0.14085 0.86972 0.9068 -1.0038 0.39386 -0.97257 -0.80421 1.1652 0.437 0.27361 -1.1458 -0.78352 0.76388 -0.27542 -0.67853 0.75349 -0.072083 -0.32882 0.34472 -0.52561 0.56328 0.0089467 -0.12906 1.1168 0.072277 -0.49204 0.7962 -0.65754 0.61735 1.2019 -0.46379 0.54618 -1.0997 0.85173 0.04412
melon 0.18441 -0.53967 -0.88737 0.68819 0.28368 -0.018605 0.26348 0.25444 0.086219 0.89426 0.10597 0.1046 0.70401 0.47789 0.2736 -0.54892 0.68631 0.72113 -0.25797 -0.73963 -0.2118 -0.61244 1.5459 0.19133 -0.12898 1.042 -0.48443 0.68686 -0.10321 -0.56111 0.51709 -0.47882 -0.48083 1.4443 0.27575 0.35497 -1.2676 0.52617 1.0308 -0.64129 -0.26462 -0.10706 -0.68828 -0.44401 0.93317 -0.28855 1.0842 -0.37766 0.0081279 -0.49466
mango 0.26381 -0.31832 -1.0953 1.3305 0.24761 0.045313 -0.39509 -0.52107 -0.016796 0.33175 -0.53252 0.43263 1.2306 -0.36963 0.15989 -0.433 -0.29768 0.768 0.71255 -0.85675 -0.076953 -1.0284 0.9337 0.24969 -0.13985 1.0316 -0.15809 0.80512 0.50535 -0.50557 1.1237 -0.45083 -0.27552 1.3537 0.3553 0.39403 -1.1213 0.027925 0.57582 -0.63611 -0.53506 -0.080186 -0.78026 -1.1595 1.0318 0.94337 0.026387 -0.96839 0.54497 -0.16479
cat 0.45281 -0.50108 -0.53714 -0.015697 0.22191 0.54602 -0.67301 -0.6891 0.63493 -0.19726 0.33685 0.7735 0.90094 0.38488 0.38367 0.2657 -0.08057 0.61089 -1.2894 -0.22313 -0.61578 0.21697 0.35614 0.44499 0.60885 -1.1633 -1.1579 0.36118 0.10466 -0.78325 1.4352 0.18629 -0.26112 0.83275 -0.23123 0.32481 0.14485 -0.44552 0.33497 -0.95946 -0.097479 0.48138 -0.43352 0.69455 0.91043 -0.28173 0.41637 -1.2609 0.71278 0.23782
dog 0.11008 -0.38781 -0.57615 -0.27714 0.70521 0.53994 -1.0786 -0.40146 1.1504 -0.5678 0.0038977 0.52878 0.64561 0.47262 0.48549 -0.18407 0.1801 0.91397 -1.1979 -0.5778 -0.37985 0.33606 0.772 0.75555 0.45506 -1.7671 -1.0503 0.42566 0.41893 -0.68327 1.5673 0.27685 -0.61708 0.64638 -0.076996 0.37118 0.1308 -0.45137 0.25398 -0.74392 -0.086199 0.24068 -0.64819 0.83549 1.2502 -0.51379 0.04224 -0.88118 0.7158 0.38519
